#mdl#2#107
#rdr#61/19/0
1:*,
18:u:Tok-1 X=%x[ 0,0],
18:u:tok-1 X=%x[ 0,1],
18:u:tok-1LL=%X[-2,0],
18:u:tok-1 L=%X[-1,0],
18:u:tok-1 R=%X[ 1,0],
18:u:tok-1RR=%X[ 2,0],
27:u:tok-2 L=%X[-1,0]/%X[ 0,0],
27:u:tok-2 R=%X[ 0,0]/%X[ 1,0],
18:*:Fst-1 X=%x[ 0,2],
18:u:Fst-1 R=%x[ 1,2],
27:u:Fst-2 X=%x[ 0,2]/%x[ 0,4],
27:u:Fst-2 R=%x[ 1,2]/%x[ 1,4],
18:*:Lst-1 L=%x[-1,3],
18:u:Lst-1 X=%x[ 0,3],
27:u:Lst-2 L=%x[-1,3]/%x[-1,6],
27:u:Lst-2 X=%x[ 0,3]/%x[ 0,6],
18:u:Pre-1 X=%x[ 0,4],
18:u:Pre-2 X=%x[ 0,5],
18:u:Pre-2 R=%x[ 1,5],
18:u:Suf-1 X=%x[ 0,6],
18:u:Suf-2 L=%x[-1,7],
18:u:Suf-2 X=%x[ 0,7],
18:u:Cap-1 L=%x[-1,8],
18:u:Cap-1 X=%x[ 0,8],
18:u:Cap-1 R=%x[ 1,8],
27:u:Cap-2 L=%x[-1,8]/%x[ 0,8],
27:u:Cap-2 R=%x[ 0,8]/%x[ 1,8],
28:u:Cap-3 L=%x[-1,18]/%x[ 0,8],
18:*:Num-1 L=%x[-1,9],
18:*:Num-1 X=%x[ 0,9],
18:u:Num-1 R=%x[ 1,9],
28:u:Num-2 R=%x[ 0,9]/%x[ 0,17],
28:u:Num-2 R=%x[ 0,9]/%x[ 0,18],
19:u:Nme-1 X=%x[ 0,10],
19:u:Loc-1 X=%x[ 0,11],
19:u:Pub-1 X=%x[ 0,12],
19:u:Jnl-1 X=%x[ 0,13],
19:u:Key-1 L=%x[-1,14],
19:u:Key-1 X=%x[ 0,14],
19:u:Key-1 R=%x[ 1,14],
28:u:Key-2 X=%x[ 0,14]/%x[ 0,8],
29:u:Key-3 L=%x[-1,18]/%x[ 0,14],
29:u:Key-3 x=%x[ 0,14]/%x[ 0,18],
19:u:Pos-1 X=%x[ 0,15],
29:u:Pos-2 L=%x[-1,15]/%x[ 0,15],
29:u:Pos-2 R=%x[ 0,15]/%x[ 1,15],
19:u:Pct-1 L=%x[-1,16],
19:u:Pct-1 X=%x[ 0,16],
19:u:Pct-1 R=%x[ 1,16],
19:u:Brk-1 L=%x[-1,17],
19:u:Brk-1 X=%x[ 0,17],
19:u:Brk-1 R=%x[ 1,17],
19:*:Tmn-1 L=%x[-1,18],
19:u:Tmn-1 X=%x[ 0,18],
19:u:Tmn-1 R=%x[ 1,18],
29:u:Tmn-2 L=%x[-1,14]/%x[ 0,18],
29:u:Tmn-2 R=%x[ 0,18]/%x[ 1,14],
28:u:Tmn-3 X=%x[ 0,18]/%x[ 0,6],
28:u:Tmn-4 R=%x[ 0,18]/%x[ 1,8],
19:u:Id--1 X=%x[ 0,19],
#qrk#4
6:author,
4:date,
5:title,
7:journal,
#qrk#90
1:*,
12:*:Fst-1 X=Lu,
12:u:Fst-1 R=Lu,
11:u:Lst-1 X=P,
14:*:Num-1 X=none,
14:u:Num-1 R=none,
19:u:Num-2 R=none/none,
11:u:Pub-1 X=F,
14:u:Key-1 R=none,
16:u:Pct-1 R=period,
14:u:Brk-1 X=none,
14:u:Brk-1 R=none,
16:u:Tmn-1 R=strong,
11:*:Lst-1 L=P,
14:*:Num-1 L=none,
14:*:Tmn-1 L=weak,
17:u:Tok-1 X=(2023).,
14:u:tok-1 X=2023,
16:u:tok-1LL=smith,,
12:u:tok-1 L=j.,
17:u:tok-1 R=machine,
18:u:tok-1RR=learning,
20:u:tok-2 L=j./(2023).,
25:u:tok-2 R=(2023)./machine,
12:*:Fst-1 X=Ps,
14:u:Fst-2 X=Ps/(,
14:u:Fst-2 R=Lu/M,
11:u:Pre-1 X=(,
12:u:Pre-2 X=(2,
12:u:Pre-2 R=Ma,
12:u:Suf-2 L=J.,
12:u:Suf-2 X=).,
16:u:Cap-1 L=single,
15:u:Cap-1 X=other,
17:u:Cap-1 R=initial,
22:u:Cap-2 L=single/other,
23:u:Cap-2 R=other/initial,
22:u:Cap-3 L=strong/other,
14:*:Num-1 X=year,
21:u:Num-2 R=year/parens,
21:u:Num-2 R=year/strong,
20:u:Key-2 X=none/other,
11:u:Pos-1 X=3,
13:u:Pos-2 L=2/3,
13:u:Pos-2 R=3/5,
14:u:Pct-1 R=none,
16:u:Brk-1 X=parens,
16:*:Tmn-1 L=strong,
14:u:Tmn-1 R=none,
24:u:Tmn-4 R=strong/initial,
12:u:Lst-1 X=Ll,
25:u:Cap-2 R=initial/initial,
14:*:Num-1 L=year,
19:u:Key-3 x=none/none,
14:u:Pct-1 X=none,
14:u:Tmn-1 X=none,
19:u:Tmn-2 L=none/none,
19:u:Tmn-2 R=none/none,
22:u:Tmn-4 R=none/initial,
12:*:Lst-1 L=Ll,
14:*:Tmn-1 L=none,
16:u:Tok-1 X=Nature,
16:u:tok-1 X=nature,
17:u:tok-1LL=machine,
18:u:tok-1 L=learning,
14:u:tok-1 R=_x+1,
14:u:tok-1RR=_x+2,
25:u:tok-2 L=learning/nature,
21:u:tok-2 R=nature/_x+1,
14:u:Fst-1 R=_x+1,
14:u:Fst-2 X=Lu/N,
19:u:Fst-2 R=_x+1/_x+1,
14:u:Lst-2 L=Ll/g,
11:u:Pre-1 X=N,
12:u:Pre-2 X=Na,
14:u:Pre-2 R=_x+1,
12:u:Suf-2 L=ng,
12:u:Suf-2 X=re,
14:u:Cap-1 R=_x+1,
22:u:Cap-2 R=initial/_x+1,
14:u:Num-1 R=_x+1,
14:u:Key-1 R=_x+1,
14:u:Pos-1 X=last,
16:u:Pos-2 L=7/last,
19:u:Pos-2 R=last/_x+1,
14:u:Pct-1 R=_x+1,
14:u:Brk-1 R=_x+1,
14:u:Tmn-1 R=_x+1,
19:u:Tmn-2 R=none/_x+1,
19:u:Tmn-4 R=none/_x+1,
5=7.407415e-02
10=3.715711e-02
15=1.113954e-02
21=-3.275279e-02
24=1.553681e-01
30=7.579078e-02
35=5.775140e-02
43=-6.399628e-02
44=4.022949e-01
46=-8.730517e-02
49=-3.275279e-02
52=1.553681e-01
58=7.579078e-02
63=5.775140e-02
71=-6.399628e-02
73=-6.265072e-01
74=1.799025e-01
78=-3.074163e-03
83=-2.440935e-01
84=6.093621e-01
89=-3.275279e-02
95=-6.399628e-02
96=6.093621e-01
104=6.594740e-02
105=1.051064e-01
110=1.085839e-01
124=3.749131e-02
125=9.147785e-02
135=5.954916e-02
144=2.806951e-01
161=6.419034e-03
165=6.419034e-03
169=6.419034e-03
173=6.419034e-03
177=6.419034e-03
181=6.419034e-03
185=6.419034e-03
189=6.419034e-03
193=6.419034e-03
197=2.860409e-01
213=6.419034e-03
217=6.419034e-03
221=6.419034e-03
225=6.419034e-03
229=6.419034e-03
233=6.419034e-03
237=6.419034e-03
241=6.419034e-03
245=6.419034e-03
250=9.693515e-02
253=6.419034e-03
257=6.419034e-03
261=6.419034e-03
265=6.419034e-03
269=2.860409e-01
285=6.419034e-03
289=6.419034e-03
293=6.419034e-03
297=6.419034e-03
301=6.419034e-03
305=6.419034e-03
310=9.693515e-02
313=6.419034e-03
321=2.536403e-01
326=1.277464e-01
338=9.693515e-02
341=6.419034e-03
346=4.349120e-02
350=3.475823e-01
362=1.490816e-01
374=4.349120e-02
378=4.349120e-02
382=4.349120e-02
386=4.349120e-02
390=3.475823e-01
394=3.475823e-01
411=1.032072e-01
431=1.032072e-01
439=2.288988e-02
443=2.288988e-02
447=2.288988e-02
451=2.288988e-02
455=2.288988e-02
459=2.288988e-02
463=2.288988e-02
467=2.288988e-02
471=2.288988e-02
475=2.288988e-02
479=2.288988e-02
483=2.288988e-02
487=2.288988e-02
491=2.288988e-02
495=2.288988e-02
499=2.288988e-02
503=2.288988e-02
507=2.288988e-02
511=2.288988e-02
515=2.288988e-02
519=2.288988e-02
523=2.288988e-02
527=2.288988e-02
531=2.288988e-02
535=2.288988e-02
539=2.288988e-02
543=2.288988e-02
547=2.288988e-02
551=2.288988e-02
